<?xml version="1.0" encoding="ISO-8859-1"?>
<smile version="1.0" id="Community" numsamples="1000" discsamples="10000">
	<properties>
		<property id="Type">INDICATOR</property>
	</properties>
	<nodes>
		<cpt id="Vertices">
			<state id="high" />
			<state id="low" />
			<state id="medium" />
			<probabilities>0.307909604519774 0.3418079096045198 0.3502824858757062</probabilities>
			<property id="Type">INPUT</property>
		</cpt>
		<cpt id="VMinimum_Clustering_Coefficient">
			<state id="high" />
			<state id="low" />
			<state id="medium" />
			<probabilities>0.3163841807909605 0.2231638418079096 0.46045197740113</probabilities>
			<property id="Type">INPUT</property>
		</cpt>
		<cpt id="VMaximum_Clustering_Coefficient">
			<state id="high" />
			<state id="low" />
			<state id="medium" />
			<probabilities>0.4011299435028249 0.2909604519774012 0.307909604519774</probabilities>
			<property id="Type">INPUT</property>
		</cpt>
		<cpt id="VAverage_Clustering_Coefficient">
			<state id="high" />
			<state id="low" />
			<state id="medium" />
			<probabilities>0.4435028248587571 0.1977401129943503 0.3587570621468927</probabilities>
			<property id="Type">INPUT</property>
		</cpt>
		<cpt id="VMedian_Clustering_Coefficient">
			<state id="high" />
			<state id="low" />
			<state id="medium" />
			<probabilities>0.4180790960451978 0.3163841807909605 0.2655367231638418</probabilities>
			<property id="Type">INPUT</property>
		</cpt>
		<cpt id="VCommunity_Timeliness">
			<state id="State1" />
			<state id="State2" />
			<state id="State3" />
			<state id="State4" />
			<state id="State5" />
			<parents>Vertices VMinimum_Clustering_Coefficient VMaximum_Clustering_Coefficient VAverage_Clustering_Coefficient VMedian_Clustering_Coefficient</parents>
			<probabilities>0.05 0.05 0.05 0.3 0.55 0.06666666666666667 0.06666666666666667 0.06666666666666667 0.4 0.4 0.06666666666666667 0.06666666666666667 0.4 0.06666666666666667 0.4 0.2 0.2 0.2 0.2 0.2 0.2 0.2 0.2 0.2 0.2 0.2 0.2 0.2 0.2 0.2 0.2 0.2 0.2 0.2 0.2 0.2 0.2 0.2 0.2 0.2 0.2 0.2 0.2 0.2 0.2 0.06666666666666667 0.06666666666666667 0.4 0.4 0.06666666666666667 0.2 0.2 0.2 0.2 0.2 0.2 0.2 0.2 0.2 0.2 0.2 0.2 0.2 0.2 0.2 0.06666666666666665 0.06666666666666665 0.7333333333333333 0.06666666666666665 0.06666666666666665 0.2 0.2 0.2 0.2 0.2 0.2 0.2 0.2 0.2 0.2 0.2 0.2 0.2 0.2 0.2 0.2 0.2 0.2 0.2 0.2 0.2 0.2 0.2 0.2 0.2 0.2 0.2 0.2 0.2 0.2 0.2 0.2 0.2 0.2 0.2 0.2 0.2 0.2 0.2 0.2 0.2 0.2 0.2 0.2 0.2 0.2 0.2 0.2 0.2 0.2 0.06666666666666667 0.06666666666666667 0.4 0.4 0.06666666666666667 0.2 0.2 0.2 0.2 0.2 0.2 0.2 0.2 0.2 0.2 0.2 0.2 0.2 0.2 0.2 0.2 0.2 0.2 0.2 0.2 0.2 0.2 0.2 0.2 0.2 0.2 0.2 0.2 0.2 0.2 0.2 0.2 0.2 0.2 0.2 0.05 0.05 0.3 0.55 0.05 0.2 0.2 0.2 0.2 0.2 0.03999999999999999 0.44 0.03999999999999999 0.44 0.03999999999999999 0.2 0.2 0.2 0.2 0.2 0.2 0.2 0.2 0.2 0.2 0.2 0.2 0.2 0.2 0.2 0.2 0.2 0.2 0.2 0.2 0.3999999999999999 0.3999999999999999 0.06666666666666665 0.06666666666666665 0.06666666666666665 0.2 0.2 0.2 0.2 0.2 0.2 0.2 0.2 0.2 0.2 0.2 0.2 0.2 0.2 0.2 0.2 0.2 0.2 0.2 0.2 0.2 0.2 0.2 0.2 0.2 0.2 0.2 0.2 0.2 0.2 0.2 0.2 0.2 0.2 0.2 0.2 0.2 0.2 0.2 0.2 0.2 0.2 0.2 0.2 0.2 0.2 0.2 0.2 0.2 0.2 0.2 0.2 0.2 0.2 0.2 0.2 0.2 0.2 0.2 0.2 0.03999999999999999 0.03999999999999999 0.44 0.44 0.03999999999999999 0.2 0.2 0.2 0.2 0.2 0.2 0.2 0.2 0.2 0.2 0.2 0.2 0.2 0.2 0.2 0.2 0.2 0.2 0.2 0.2 0.2 0.2 0.2 0.2 0.2 0.2 0.2 0.2 0.2 0.2 0.2 0.2 0.2 0.2 0.2 0.2 0.2 0.2 0.2 0.2 0.2 0.2 0.2 0.2 0.2 0.2 0.2 0.2 0.2 0.2 0.2 0.2 0.2 0.2 0.2 0.2 0.2 0.2 0.2 0.2 0.2 0.2 0.2 0.2 0.2 0.2 0.2 0.2 0.2 0.2 0.2 0.2 0.2 0.2 0.2 0.06666666666666667 0.06666666666666667 0.4 0.4 0.06666666666666667 0.2 0.2 0.2 0.2 0.2 0.04000000000000001 0.04000000000000001 0.6400000000000001 0.24 0.04000000000000001 0.2 0.2 0.2 0.2 0.2 0.2 0.2 0.2 0.2 0.2 0.06666666666666667 0.4 0.06666666666666667 0.4 0.06666666666666667 0.2 0.2 0.2 0.2 0.2 0.2 0.2 0.2 0.2 0.2 0.2 0.2 0.2 0.2 0.2 0.2 0.2 0.2 0.2 0.2 0.06666666666666667 0.06666666666666667 0.4 0.4 0.06666666666666667 0.2 0.2 0.2 0.2 0.2 0.2 0.2 0.2 0.2 0.2 0.2 0.2 0.2 0.2 0.2 0.2 0.2 0.2 0.2 0.2 0.06666666666666667 0.4 0.06666666666666667 0.4 0.06666666666666667 0.2 0.2 0.2 0.2 0.2 0.2 0.2 0.2 0.2 0.2 0.2 0.2 0.2 0.2 0.2 0.2 0.2 0.2 0.2 0.2 0.2 0.2 0.2 0.2 0.2 0.2 0.2 0.2 0.2 0.2 0.2 0.2 0.2 0.2 0.2 0.2 0.2 0.2 0.2 0.2 0.2 0.2 0.2 0.2 0.2 0.06666666666666665 0.06666666666666665 0.7333333333333333 0.06666666666666665 0.06666666666666665 0.2 0.2 0.2 0.2 0.2 0.2 0.2 0.2 0.2 0.2 0.2 0.2 0.2 0.2 0.2 0.2 0.2 0.2 0.2 0.2 0.2 0.2 0.2 0.2 0.2 0.2 0.2 0.2 0.2 0.2 0.2 0.2 0.2 0.2 0.2 0.06666666666666665 0.06666666666666665 0.7333333333333333 0.06666666666666665 0.06666666666666665 0.06666666666666665 0.06666666666666665 0.7333333333333333 0.06666666666666665 0.06666666666666665 0.2 0.2 0.2 0.2 0.2 0.2 0.2 0.2 0.2 0.2 0.2 0.2 0.2 0.2 0.2 0.2 0.2 0.2 0.2 0.2 0.4 0.06666666666666667 0.4 0.06666666666666667 0.06666666666666667 0.24 0.04000000000000001 0.24 0.24 0.24 0.2 0.2 0.2 0.2 0.2 0.2 0.2 0.2 0.2 0.2 0.2 0.2 0.2 0.2 0.2 0.2 0.2 0.2 0.2 0.2 0.2 0.2 0.2 0.2 0.2 0.2 0.2 0.2 0.2 0.2 0.2 0.2 0.2 0.2 0.2 0.2 0.2 0.2 0.2 0.2 0.2 0.2 0.2 0.2 0.2 0.2 0.2 0.2 0.2 0.2 0.2 0.2 0.2 0.2 0.2 0.2 0.2 0.2 0.2 0.2 0.2 0.2 0.2 0.2 0.2 0.2 0.2 0.2 0.2 0.2 0.2 0.2 0.2 0.2 0.2 0.2 0.2 0.2 0.2 0.2 0.2 0.2 0.2 0.2 0.2 0.2 0.2 0.2 0.2 0.2 0.2 0.2 0.2 0.2 0.2 0.2 0.2 0.2 0.2 0.2 0.2 0.2 0.2 0.2 0.2 0.2 0.2 0.2 0.2 0.2 0.2 0.2 0.2 0.2 0.2 0.06666666666666665 0.06666666666666665 0.7333333333333333 0.06666666666666665 0.06666666666666665 0.2 0.2 0.2 0.2 0.2 0.2 0.2 0.2 0.2 0.2 0.01538461538461539 0.2461538461538462 0.3230769230769231 0.4 0.01538461538461539 0.06666666666666667 0.4 0.4 0.06666666666666667 0.06666666666666667 0.2 0.2 0.2 0.2 0.2 0.2 0.2 0.2 0.2 0.2 0.2 0.2 0.2 0.2 0.2 0.06666666666666667 0.4 0.4 0.06666666666666667 0.06666666666666667 0.2 0.2 0.2 0.2 0.2 0.2 0.2 0.2 0.2 0.2 0.2 0.2 0.2 0.2 0.2 0.2 0.2 0.2 0.2 0.2 0.2 0.2 0.2 0.2 0.2 0.06666666666666667 0.4 0.4 0.06666666666666667 0.06666666666666667 0.2 0.2 0.2 0.2 0.2 0.2 0.2 0.2 0.2 0.2 0.2 0.2 0.2 0.2 0.2 0.2 0.2 0.2 0.2 0.2 0.2 0.2 0.2 0.2 0.2 0.2 0.2 0.2 0.2 0.2 0.2 0.2 0.2 0.2 0.2 0.2 0.2 0.2 0.2 0.2 0.2 0.2 0.2 0.2 0.2 0.06666666666666667 0.4 0.4 0.06666666666666667 0.06666666666666667 0.2 0.2 0.2 0.2 0.2 0.2 0.2 0.2 0.2 0.2 0.2 0.2 0.2 0.2 0.2 0.03999999999999999 0.6399999999999999 0.2399999999999999 0.03999999999999999 0.03999999999999999 0.2 0.2 0.2 0.2 0.2 0.2 0.2 0.2 0.2 0.2 0.06666666666666667 0.4 0.06666666666666667 0.4 0.06666666666666667 0.2 0.2 0.2 0.2 0.2 0.2 0.2 0.2 0.2 0.2 0.2 0.2 0.2 0.2 0.2 0.2 0.2 0.2 0.2 0.2 0.06666666666666667 0.06666666666666667 0.4 0.4 0.06666666666666667 0.2 0.2 0.2 0.2 0.2 0.2 0.2 0.2 0.2 0.2 0.2 0.2 0.2 0.2 0.2 0.2 0.2 0.2 0.2 0.2 0.2 0.2 0.2 0.2 0.2 0.2 0.2 0.2 0.2 0.2 0.2 0.2 0.2 0.2 0.2 0.2 0.2 0.2 0.2 0.2 0.06666666666666665 0.06666666666666665 0.7333333333333333 0.06666666666666665 0.06666666666666665 0.2 0.2 0.2 0.2 0.2 0.06666666666666665 0.06666666666666665 0.7333333333333333 0.06666666666666665 0.06666666666666665 0.2 0.2 0.2 0.2 0.2 0.2 0.2 0.2 0.2 0.2 0.06666666666666667 0.4 0.4 0.06666666666666667 0.06666666666666667 0.2 0.2 0.2 0.2 0.2 0.06666666666666667 0.4 0.4 0.06666666666666667 0.06666666666666667 0.2 0.2 0.2 0.2 0.2 0.2 0.2 0.2 0.2 0.2 0.06666666666666667 0.4 0.4 0.06666666666666667 0.06666666666666667 0.2 0.2 0.2 0.2 0.2 0.2 0.2 0.2 0.2 0.2 0.05 0.3 0.55 0.05 0.05 0.2 0.2 0.2 0.2 0.2 0.2 0.2 0.2 0.2 0.2 0.2 0.2 0.2 0.2 0.2 0.2 0.2 0.2 0.2 0.2 0.2 0.2 0.2 0.2 0.2 0.2 0.2 0.2 0.2 0.2 0.2 0.2 0.2 0.2 0.2 0.2 0.2 0.2 0.2 0.2 0.2 0.2 0.2 0.2 0.2 0.06666666666666665 0.06666666666666665 0.7333333333333333 0.06666666666666665 0.06666666666666665 0.2 0.2 0.2 0.2 0.2 0.2 0.2 0.2 0.2 0.2 0.2 0.2 0.2 0.2 0.2 0.2 0.2 0.2 0.2 0.2 0.2 0.2 0.2 0.2 0.2 0.2 0.2 0.2 0.2 0.2 0.2 0.2 0.2 0.2 0.2 0.2 0.2 0.2 0.2 0.2 0.2 0.2 0.2 0.2 0.2 0.06666666666666667 0.4 0.4 0.06666666666666667 0.06666666666666667 0.2 0.2 0.2 0.2 0.2 0.2 0.2 0.2 0.2 0.2 0.2 0.2 0.2 0.2 0.2 0.2 0.2 0.2 0.2 0.2 0.2 0.2 0.2 0.2 0.2 0.2 0.2 0.2 0.2 0.2 0.2 0.2 0.2 0.2 0.2 0.2 0.2 0.2 0.2 0.2 0.2 0.2 0.2 0.2 0.2 0.2 0.2 0.2 0.2 0.2 0.2 0.2 0.2 0.2 0.2 0.03999999999999999 0.03999999999999999 0.44 0.44 0.03999999999999999 0.2 0.2 0.2 0.2 0.2 0.2 0.2 0.2 0.2 0.2 0.2 0.2 0.2 0.2 0.2 0.06666666666666667 0.4 0.4 0.06666666666666667 0.06666666666666667 0.04000000000000001 0.24 0.24 0.4400000000000001 0.04000000000000001 0.06666666666666667 0.4 0.4 0.06666666666666667 0.06666666666666667 0.2 0.2 0.2 0.2 0.2 0.2 0.2 0.2 0.2 0.2 0.2 0.2 0.2 0.2 0.2 0.2 0.2 0.2 0.2 0.2 0.03999999999999999 0.44 0.44 0.03999999999999999 0.03999999999999999 0.06666666666666667 0.4 0.4 0.06666666666666667 0.06666666666666667 0.2 0.2 0.2 0.2 0.2 0.2 0.2 0.2 0.2 0.2 0.2 0.2 0.2 0.2 0.2 0.2 0.2 0.2 0.2 0.2 0.2 0.2 0.2 0.2 0.2 0.2 0.2 0.2 0.2 0.2 0.4 0.06666666666666667 0.4 0.06666666666666667 0.06666666666666667 0.2 0.2 0.2 0.2 0.2</probabilities>
			<property id="Type">INDICATOR</property>
		</cpt>
		<cpt id="VCommunity_Activeness">
			<state id="State1" />
			<state id="State2" />
			<state id="State3" />
			<state id="State4" />
			<state id="State5" />
			<parents>Vertices VMinimum_Clustering_Coefficient VMaximum_Clustering_Coefficient VAverage_Clustering_Coefficient VMedian_Clustering_Coefficient</parents>
			<probabilities>0.05 0.05 0.05 0.55 0.3 0.06666666666666667 0.06666666666666667 0.06666666666666667 0.4 0.4 0.06666666666666667 0.06666666666666667 0.06666666666666667 0.4 0.4 0.2 0.2 0.2 0.2 0.2 0.2 0.2 0.2 0.2 0.2 0.2 0.2 0.2 0.2 0.2 0.2 0.2 0.2 0.2 0.2 0.2 0.2 0.2 0.2 0.2 0.2 0.2 0.2 0.2 0.2 0.06666666666666665 0.06666666666666665 0.06666666666666665 0.7333333333333333 0.06666666666666665 0.2 0.2 0.2 0.2 0.2 0.2 0.2 0.2 0.2 0.2 0.2 0.2 0.2 0.2 0.2 0.06666666666666665 0.06666666666666665 0.7333333333333333 0.06666666666666665 0.06666666666666665 0.2 0.2 0.2 0.2 0.2 0.2 0.2 0.2 0.2 0.2 0.2 0.2 0.2 0.2 0.2 0.2 0.2 0.2 0.2 0.2 0.2 0.2 0.2 0.2 0.2 0.2 0.2 0.2 0.2 0.2 0.2 0.2 0.2 0.2 0.2 0.2 0.2 0.2 0.2 0.2 0.2 0.2 0.2 0.2 0.2 0.2 0.2 0.2 0.2 0.2 0.06666666666666667 0.4 0.06666666666666667 0.4 0.06666666666666667 0.2 0.2 0.2 0.2 0.2 0.2 0.2 0.2 0.2 0.2 0.2 0.2 0.2 0.2 0.2 0.2 0.2 0.2 0.2 0.2 0.2 0.2 0.2 0.2 0.2 0.2 0.2 0.2 0.2 0.2 0.2 0.2 0.2 0.2 0.2 0.05 0.3 0.05 0.55 0.05 0.2 0.2 0.2 0.2 0.2 0.2399999999999999 0.2399999999999999 0.03999999999999999 0.44 0.03999999999999999 0.2 0.2 0.2 0.2 0.2 0.2 0.2 0.2 0.2 0.2 0.2 0.2 0.2 0.2 0.2 0.2 0.2 0.2 0.2 0.2 0.3999999999999999 0.3999999999999999 0.06666666666666665 0.06666666666666665 0.06666666666666665 0.2 0.2 0.2 0.2 0.2 0.2 0.2 0.2 0.2 0.2 0.2 0.2 0.2 0.2 0.2 0.2 0.2 0.2 0.2 0.2 0.2 0.2 0.2 0.2 0.2 0.2 0.2 0.2 0.2 0.2 0.2 0.2 0.2 0.2 0.2 0.2 0.2 0.2 0.2 0.2 0.2 0.2 0.2 0.2 0.2 0.2 0.2 0.2 0.2 0.2 0.2 0.2 0.2 0.2 0.2 0.2 0.2 0.2 0.2 0.2 0.04000000000000001 0.24 0.24 0.4400000000000001 0.04000000000000001 0.2 0.2 0.2 0.2 0.2 0.2 0.2 0.2 0.2 0.2 0.2 0.2 0.2 0.2 0.2 0.2 0.2 0.2 0.2 0.2 0.2 0.2 0.2 0.2 0.2 0.2 0.2 0.2 0.2 0.2 0.2 0.2 0.2 0.2 0.2 0.2 0.2 0.2 0.2 0.2 0.2 0.2 0.2 0.2 0.2 0.2 0.2 0.2 0.2 0.2 0.2 0.2 0.2 0.2 0.2 0.2 0.2 0.2 0.2 0.2 0.2 0.2 0.2 0.2 0.2 0.2 0.2 0.2 0.2 0.2 0.2 0.2 0.2 0.2 0.2 0.06666666666666667 0.4 0.4 0.06666666666666667 0.06666666666666667 0.2 0.2 0.2 0.2 0.2 0.03999999999999999 0.03999999999999999 0.8399999999999999 0.03999999999999999 0.03999999999999999 0.2 0.2 0.2 0.2 0.2 0.2 0.2 0.2 0.2 0.2 0.06666666666666667 0.4 0.06666666666666667 0.4 0.06666666666666667 0.2 0.2 0.2 0.2 0.2 0.2 0.2 0.2 0.2 0.2 0.2 0.2 0.2 0.2 0.2 0.2 0.2 0.2 0.2 0.2 0.06666666666666665 0.06666666666666665 0.06666666666666665 0.7333333333333333 0.06666666666666665 0.2 0.2 0.2 0.2 0.2 0.2 0.2 0.2 0.2 0.2 0.2 0.2 0.2 0.2 0.2 0.2 0.2 0.2 0.2 0.2 0.06666666666666667 0.06666666666666667 0.4 0.4 0.06666666666666667 0.2 0.2 0.2 0.2 0.2 0.2 0.2 0.2 0.2 0.2 0.2 0.2 0.2 0.2 0.2 0.2 0.2 0.2 0.2 0.2 0.2 0.2 0.2 0.2 0.2 0.2 0.2 0.2 0.2 0.2 0.2 0.2 0.2 0.2 0.2 0.2 0.2 0.2 0.2 0.2 0.2 0.2 0.2 0.2 0.2 0.06666666666666667 0.4 0.4 0.06666666666666667 0.06666666666666667 0.2 0.2 0.2 0.2 0.2 0.2 0.2 0.2 0.2 0.2 0.2 0.2 0.2 0.2 0.2 0.2 0.2 0.2 0.2 0.2 0.2 0.2 0.2 0.2 0.2 0.2 0.2 0.2 0.2 0.2 0.2 0.2 0.2 0.2 0.2 0.06666666666666665 0.06666666666666665 0.7333333333333333 0.06666666666666665 0.06666666666666665 0.06666666666666667 0.4 0.4 0.06666666666666667 0.06666666666666667 0.2 0.2 0.2 0.2 0.2 0.2 0.2 0.2 0.2 0.2 0.2 0.2 0.2 0.2 0.2 0.2 0.2 0.2 0.2 0.2 0.06666666666666667 0.4 0.4 0.06666666666666667 0.06666666666666667 0.04000000000000001 0.24 0.04000000000000001 0.24 0.4400000000000001 0.2 0.2 0.2 0.2 0.2 0.2 0.2 0.2 0.2 0.2 0.2 0.2 0.2 0.2 0.2 0.2 0.2 0.2 0.2 0.2 0.2 0.2 0.2 0.2 0.2 0.2 0.2 0.2 0.2 0.2 0.2 0.2 0.2 0.2 0.2 0.2 0.2 0.2 0.2 0.2 0.2 0.2 0.2 0.2 0.2 0.2 0.2 0.2 0.2 0.2 0.2 0.2 0.2 0.2 0.2 0.2 0.2 0.2 0.2 0.2 0.2 0.2 0.2 0.2 0.2 0.2 0.2 0.2 0.2 0.2 0.2 0.2 0.2 0.2 0.2 0.2 0.2 0.2 0.2 0.2 0.2 0.2 0.2 0.2 0.2 0.2 0.2 0.2 0.2 0.2 0.2 0.2 0.2 0.2 0.2 0.2 0.2 0.2 0.2 0.2 0.2 0.2 0.2 0.2 0.2 0.2 0.2 0.2 0.2 0.2 0.2 0.2 0.2 0.2 0.2 0.06666666666666667 0.4 0.4 0.06666666666666667 0.06666666666666667 0.2 0.2 0.2 0.2 0.2 0.2 0.2 0.2 0.2 0.2 0.01538461538461539 0.1692307692307692 0.3230769230769231 0.2461538461538462 0.2461538461538462 0.06666666666666667 0.4 0.4 0.06666666666666667 0.06666666666666667 0.2 0.2 0.2 0.2 0.2 0.2 0.2 0.2 0.2 0.2 0.2 0.2 0.2 0.2 0.2 0.06666666666666667 0.4 0.4 0.06666666666666667 0.06666666666666667 0.2 0.2 0.2 0.2 0.2 0.2 0.2 0.2 0.2 0.2 0.2 0.2 0.2 0.2 0.2 0.2 0.2 0.2 0.2 0.2 0.2 0.2 0.2 0.2 0.2 0.06666666666666665 0.06666666666666665 0.7333333333333333 0.06666666666666665 0.06666666666666665 0.2 0.2 0.2 0.2 0.2 0.2 0.2 0.2 0.2 0.2 0.2 0.2 0.2 0.2 0.2 0.2 0.2 0.2 0.2 0.2 0.2 0.2 0.2 0.2 0.2 0.2 0.2 0.2 0.2 0.2 0.2 0.2 0.2 0.2 0.2 0.2 0.2 0.2 0.2 0.2 0.2 0.2 0.2 0.2 0.2 0.06666666666666667 0.4 0.4 0.06666666666666667 0.06666666666666667 0.2 0.2 0.2 0.2 0.2 0.2 0.2 0.2 0.2 0.2 0.2 0.2 0.2 0.2 0.2 0.03999999999999999 0.6399999999999999 0.2399999999999999 0.03999999999999999 0.03999999999999999 0.2 0.2 0.2 0.2 0.2 0.2 0.2 0.2 0.2 0.2 0.06666666666666667 0.4 0.06666666666666667 0.4 0.06666666666666667 0.2 0.2 0.2 0.2 0.2 0.2 0.2 0.2 0.2 0.2 0.2 0.2 0.2 0.2 0.2 0.2 0.2 0.2 0.2 0.2 0.06666666666666667 0.06666666666666667 0.4 0.4 0.06666666666666667 0.2 0.2 0.2 0.2 0.2 0.2 0.2 0.2 0.2 0.2 0.2 0.2 0.2 0.2 0.2 0.2 0.2 0.2 0.2 0.2 0.2 0.2 0.2 0.2 0.2 0.2 0.2 0.2 0.2 0.2 0.2 0.2 0.2 0.2 0.2 0.2 0.2 0.2 0.2 0.2 0.06666666666666665 0.06666666666666665 0.7333333333333333 0.06666666666666665 0.06666666666666665 0.2 0.2 0.2 0.2 0.2 0.06666666666666665 0.06666666666666665 0.7333333333333333 0.06666666666666665 0.06666666666666665 0.2 0.2 0.2 0.2 0.2 0.2 0.2 0.2 0.2 0.2 0.06666666666666665 0.06666666666666665 0.7333333333333333 0.06666666666666665 0.06666666666666665 0.2 0.2 0.2 0.2 0.2 0.06666666666666667 0.4 0.4 0.06666666666666667 0.06666666666666667 0.2 0.2 0.2 0.2 0.2 0.2 0.2 0.2 0.2 0.2 0.06666666666666667 0.4 0.4 0.06666666666666667 0.06666666666666667 0.2 0.2 0.2 0.2 0.2 0.2 0.2 0.2 0.2 0.2 0.05 0.05 0.8 0.05 0.05 0.2 0.2 0.2 0.2 0.2 0.2 0.2 0.2 0.2 0.2 0.2 0.2 0.2 0.2 0.2 0.2 0.2 0.2 0.2 0.2 0.2 0.2 0.2 0.2 0.2 0.2 0.2 0.2 0.2 0.2 0.2 0.2 0.2 0.2 0.2 0.2 0.2 0.2 0.2 0.2 0.2 0.2 0.2 0.2 0.2 0.06666666666666667 0.4 0.4 0.06666666666666667 0.06666666666666667 0.2 0.2 0.2 0.2 0.2 0.2 0.2 0.2 0.2 0.2 0.2 0.2 0.2 0.2 0.2 0.2 0.2 0.2 0.2 0.2 0.2 0.2 0.2 0.2 0.2 0.2 0.2 0.2 0.2 0.2 0.2 0.2 0.2 0.2 0.2 0.2 0.2 0.2 0.2 0.2 0.2 0.2 0.2 0.2 0.2 0.06666666666666665 0.06666666666666665 0.7333333333333333 0.06666666666666665 0.06666666666666665 0.2 0.2 0.2 0.2 0.2 0.2 0.2 0.2 0.2 0.2 0.2 0.2 0.2 0.2 0.2 0.2 0.2 0.2 0.2 0.2 0.2 0.2 0.2 0.2 0.2 0.2 0.2 0.2 0.2 0.2 0.2 0.2 0.2 0.2 0.2 0.2 0.2 0.2 0.2 0.2 0.2 0.2 0.2 0.2 0.2 0.2 0.2 0.2 0.2 0.2 0.2 0.2 0.2 0.2 0.2 0.03999999999999999 0.03999999999999999 0.44 0.44 0.03999999999999999 0.2 0.2 0.2 0.2 0.2 0.2 0.2 0.2 0.2 0.2 0.2 0.2 0.2 0.2 0.2 0.06666666666666667 0.4 0.4 0.06666666666666667 0.06666666666666667 0.04000000000000001 0.24 0.4400000000000001 0.24 0.04000000000000001 0.06666666666666667 0.4 0.4 0.06666666666666667 0.06666666666666667 0.2 0.2 0.2 0.2 0.2 0.2 0.2 0.2 0.2 0.2 0.2 0.2 0.2 0.2 0.2 0.2 0.2 0.2 0.2 0.2 0.24 0.24 0.4400000000000001 0.04000000000000001 0.04000000000000001 0.06666666666666667 0.4 0.4 0.06666666666666667 0.06666666666666667 0.2 0.2 0.2 0.2 0.2 0.2 0.2 0.2 0.2 0.2 0.2 0.2 0.2 0.2 0.2 0.2 0.2 0.2 0.2 0.2 0.2 0.2 0.2 0.2 0.2 0.2 0.2 0.2 0.2 0.2 0.06666666666666667 0.4 0.4 0.06666666666666667 0.06666666666666667 0.2 0.2 0.2 0.2 0.2</probabilities>
			<property id="Type">INDICATOR</property>
		</cpt>
		<cpt id="VCommunity_Forking">
			<state id="State1" />
			<state id="State2" />
			<state id="State3" />
			<state id="State4" />
			<state id="State5" />
			<parents>Vertices VMinimum_Clustering_Coefficient VMaximum_Clustering_Coefficient VAverage_Clustering_Coefficient VMedian_Clustering_Coefficient</parents>
			<probabilities>0.05 0.05 0.3 0.05 0.55 0.06666666666666667 0.4 0.4 0.06666666666666667 0.06666666666666667 0.06666666666666665 0.06666666666666665 0.7333333333333333 0.06666666666666665 0.06666666666666665 0.2 0.2 0.2 0.2 0.2 0.2 0.2 0.2 0.2 0.2 0.2 0.2 0.2 0.2 0.2 0.2 0.2 0.2 0.2 0.2 0.2 0.2 0.2 0.2 0.2 0.2 0.2 0.2 0.2 0.2 0.06666666666666667 0.4 0.4 0.06666666666666667 0.06666666666666667 0.2 0.2 0.2 0.2 0.2 0.2 0.2 0.2 0.2 0.2 0.2 0.2 0.2 0.2 0.2 0.06666666666666667 0.4 0.4 0.06666666666666667 0.06666666666666667 0.2 0.2 0.2 0.2 0.2 0.2 0.2 0.2 0.2 0.2 0.2 0.2 0.2 0.2 0.2 0.2 0.2 0.2 0.2 0.2 0.2 0.2 0.2 0.2 0.2 0.2 0.2 0.2 0.2 0.2 0.2 0.2 0.2 0.2 0.2 0.2 0.2 0.2 0.2 0.2 0.2 0.2 0.2 0.2 0.2 0.2 0.2 0.2 0.2 0.2 0.4 0.06666666666666667 0.4 0.06666666666666667 0.06666666666666667 0.2 0.2 0.2 0.2 0.2 0.2 0.2 0.2 0.2 0.2 0.2 0.2 0.2 0.2 0.2 0.2 0.2 0.2 0.2 0.2 0.2 0.2 0.2 0.2 0.2 0.2 0.2 0.2 0.2 0.2 0.2 0.2 0.2 0.2 0.2 0.3 0.3 0.3 0.05 0.05 0.2 0.2 0.2 0.2 0.2 0.04000000000000001 0.24 0.4400000000000001 0.24 0.04000000000000001 0.2 0.2 0.2 0.2 0.2 0.2 0.2 0.2 0.2 0.2 0.2 0.2 0.2 0.2 0.2 0.2 0.2 0.2 0.2 0.2 0.06666666666666667 0.4 0.06666666666666667 0.06666666666666667 0.4 0.2 0.2 0.2 0.2 0.2 0.2 0.2 0.2 0.2 0.2 0.2 0.2 0.2 0.2 0.2 0.2 0.2 0.2 0.2 0.2 0.2 0.2 0.2 0.2 0.2 0.2 0.2 0.2 0.2 0.2 0.2 0.2 0.2 0.2 0.2 0.2 0.2 0.2 0.2 0.2 0.2 0.2 0.2 0.2 0.2 0.2 0.2 0.2 0.2 0.2 0.2 0.2 0.2 0.2 0.2 0.2 0.2 0.2 0.2 0.2 0.2399999999999999 0.44 0.03999999999999999 0.03999999999999999 0.2399999999999999 0.2 0.2 0.2 0.2 0.2 0.2 0.2 0.2 0.2 0.2 0.2 0.2 0.2 0.2 0.2 0.2 0.2 0.2 0.2 0.2 0.2 0.2 0.2 0.2 0.2 0.2 0.2 0.2 0.2 0.2 0.2 0.2 0.2 0.2 0.2 0.2 0.2 0.2 0.2 0.2 0.2 0.2 0.2 0.2 0.2 0.2 0.2 0.2 0.2 0.2 0.2 0.2 0.2 0.2 0.2 0.2 0.2 0.2 0.2 0.2 0.2 0.2 0.2 0.2 0.2 0.2 0.2 0.2 0.2 0.2 0.2 0.2 0.2 0.2 0.2 0.06666666666666667 0.4 0.4 0.06666666666666667 0.06666666666666667 0.2 0.2 0.2 0.2 0.2 0.03999999999999999 0.6399999999999999 0.2399999999999999 0.03999999999999999 0.03999999999999999 0.2 0.2 0.2 0.2 0.2 0.2 0.2 0.2 0.2 0.2 0.4 0.06666666666666667 0.06666666666666667 0.06666666666666667 0.4 0.2 0.2 0.2 0.2 0.2 0.2 0.2 0.2 0.2 0.2 0.2 0.2 0.2 0.2 0.2 0.2 0.2 0.2 0.2 0.2 0.06666666666666667 0.4 0.4 0.06666666666666667 0.06666666666666667 0.2 0.2 0.2 0.2 0.2 0.2 0.2 0.2 0.2 0.2 0.2 0.2 0.2 0.2 0.2 0.2 0.2 0.2 0.2 0.2 0.06666666666666667 0.06666666666666667 0.06666666666666667 0.4 0.4 0.2 0.2 0.2 0.2 0.2 0.2 0.2 0.2 0.2 0.2 0.2 0.2 0.2 0.2 0.2 0.2 0.2 0.2 0.2 0.2 0.2 0.2 0.2 0.2 0.2 0.2 0.2 0.2 0.2 0.2 0.2 0.2 0.2 0.2 0.2 0.2 0.2 0.2 0.2 0.2 0.2 0.2 0.2 0.2 0.2 0.06666666666666667 0.06666666666666667 0.4 0.4 0.06666666666666667 0.2 0.2 0.2 0.2 0.2 0.2 0.2 0.2 0.2 0.2 0.2 0.2 0.2 0.2 0.2 0.2 0.2 0.2 0.2 0.2 0.2 0.2 0.2 0.2 0.2 0.2 0.2 0.2 0.2 0.2 0.2 0.2 0.2 0.2 0.2 0.06666666666666667 0.4 0.4 0.06666666666666667 0.06666666666666667 0.06666666666666665 0.06666666666666665 0.7333333333333333 0.06666666666666665 0.06666666666666665 0.2 0.2 0.2 0.2 0.2 0.2 0.2 0.2 0.2 0.2 0.2 0.2 0.2 0.2 0.2 0.2 0.2 0.2 0.2 0.2 0.06666666666666665 0.06666666666666665 0.7333333333333333 0.06666666666666665 0.06666666666666665 0.24 0.04000000000000001 0.4400000000000001 0.04000000000000001 0.24 0.2 0.2 0.2 0.2 0.2 0.2 0.2 0.2 0.2 0.2 0.2 0.2 0.2 0.2 0.2 0.2 0.2 0.2 0.2 0.2 0.2 0.2 0.2 0.2 0.2 0.2 0.2 0.2 0.2 0.2 0.2 0.2 0.2 0.2 0.2 0.2 0.2 0.2 0.2 0.2 0.2 0.2 0.2 0.2 0.2 0.2 0.2 0.2 0.2 0.2 0.2 0.2 0.2 0.2 0.2 0.2 0.2 0.2 0.2 0.2 0.2 0.2 0.2 0.2 0.2 0.2 0.2 0.2 0.2 0.2 0.2 0.2 0.2 0.2 0.2 0.2 0.2 0.2 0.2 0.2 0.2 0.2 0.2 0.2 0.2 0.2 0.2 0.2 0.2 0.2 0.2 0.2 0.2 0.2 0.2 0.2 0.2 0.2 0.2 0.2 0.2 0.2 0.2 0.2 0.2 0.2 0.2 0.2 0.2 0.2 0.2 0.2 0.2 0.2 0.2 0.06666666666666667 0.4 0.4 0.06666666666666667 0.06666666666666667 0.2 0.2 0.2 0.2 0.2 0.2 0.2 0.2 0.2 0.2 0.1692307692307692 0.2461538461538462 0.3230769230769231 0.09230769230769231 0.1692307692307692 0.06666666666666665 0.06666666666666665 0.7333333333333333 0.06666666666666665 0.06666666666666665 0.2 0.2 0.2 0.2 0.2 0.2 0.2 0.2 0.2 0.2 0.2 0.2 0.2 0.2 0.2 0.06666666666666667 0.4 0.4 0.06666666666666667 0.06666666666666667 0.2 0.2 0.2 0.2 0.2 0.2 0.2 0.2 0.2 0.2 0.2 0.2 0.2 0.2 0.2 0.2 0.2 0.2 0.2 0.2 0.2 0.2 0.2 0.2 0.2 0.06666666666666667 0.4 0.4 0.06666666666666667 0.06666666666666667 0.2 0.2 0.2 0.2 0.2 0.2 0.2 0.2 0.2 0.2 0.2 0.2 0.2 0.2 0.2 0.2 0.2 0.2 0.2 0.2 0.2 0.2 0.2 0.2 0.2 0.2 0.2 0.2 0.2 0.2 0.2 0.2 0.2 0.2 0.2 0.2 0.2 0.2 0.2 0.2 0.2 0.2 0.2 0.2 0.2 0.06666666666666667 0.4 0.4 0.06666666666666667 0.06666666666666667 0.2 0.2 0.2 0.2 0.2 0.2 0.2 0.2 0.2 0.2 0.2 0.2 0.2 0.2 0.2 0.44 0.44 0.03999999999999999 0.03999999999999999 0.03999999999999999 0.2 0.2 0.2 0.2 0.2 0.2 0.2 0.2 0.2 0.2 0.4 0.06666666666666667 0.4 0.06666666666666667 0.06666666666666667 0.2 0.2 0.2 0.2 0.2 0.2 0.2 0.2 0.2 0.2 0.2 0.2 0.2 0.2 0.2 0.2 0.2 0.2 0.2 0.2 0.06666666666666667 0.06666666666666667 0.4 0.4 0.06666666666666667 0.2 0.2 0.2 0.2 0.2 0.2 0.2 0.2 0.2 0.2 0.2 0.2 0.2 0.2 0.2 0.2 0.2 0.2 0.2 0.2 0.2 0.2 0.2 0.2 0.2 0.2 0.2 0.2 0.2 0.2 0.2 0.2 0.2 0.2 0.2 0.2 0.2 0.2 0.2 0.2 0.06666666666666667 0.4 0.4 0.06666666666666667 0.06666666666666667 0.2 0.2 0.2 0.2 0.2 0.06666666666666667 0.4 0.4 0.06666666666666667 0.06666666666666667 0.2 0.2 0.2 0.2 0.2 0.2 0.2 0.2 0.2 0.2 0.06666666666666665 0.06666666666666665 0.7333333333333333 0.06666666666666665 0.06666666666666665 0.2 0.2 0.2 0.2 0.2 0.06666666666666667 0.4 0.4 0.06666666666666667 0.06666666666666667 0.2 0.2 0.2 0.2 0.2 0.2 0.2 0.2 0.2 0.2 0.06666666666666665 0.06666666666666665 0.7333333333333333 0.06666666666666665 0.06666666666666665 0.2 0.2 0.2 0.2 0.2 0.2 0.2 0.2 0.2 0.2 0.05 0.3 0.3 0.3 0.05 0.2 0.2 0.2 0.2 0.2 0.2 0.2 0.2 0.2 0.2 0.2 0.2 0.2 0.2 0.2 0.2 0.2 0.2 0.2 0.2 0.2 0.2 0.2 0.2 0.2 0.2 0.2 0.2 0.2 0.2 0.2 0.2 0.2 0.2 0.2 0.2 0.2 0.2 0.2 0.2 0.2 0.2 0.2 0.2 0.2 0.06666666666666667 0.4 0.4 0.06666666666666667 0.06666666666666667 0.2 0.2 0.2 0.2 0.2 0.2 0.2 0.2 0.2 0.2 0.2 0.2 0.2 0.2 0.2 0.2 0.2 0.2 0.2 0.2 0.2 0.2 0.2 0.2 0.2 0.2 0.2 0.2 0.2 0.2 0.2 0.2 0.2 0.2 0.2 0.2 0.2 0.2 0.2 0.2 0.2 0.2 0.2 0.2 0.2 0.06666666666666667 0.4 0.4 0.06666666666666667 0.06666666666666667 0.2 0.2 0.2 0.2 0.2 0.2 0.2 0.2 0.2 0.2 0.2 0.2 0.2 0.2 0.2 0.2 0.2 0.2 0.2 0.2 0.2 0.2 0.2 0.2 0.2 0.2 0.2 0.2 0.2 0.2 0.2 0.2 0.2 0.2 0.2 0.2 0.2 0.2 0.2 0.2 0.2 0.2 0.2 0.2 0.2 0.2 0.2 0.2 0.2 0.2 0.2 0.2 0.2 0.2 0.2 0.03999999999999999 0.6399999999999999 0.03999999999999999 0.2399999999999999 0.03999999999999999 0.2 0.2 0.2 0.2 0.2 0.2 0.2 0.2 0.2 0.2 0.2 0.2 0.2 0.2 0.2 0.06666666666666667 0.4 0.4 0.06666666666666667 0.06666666666666667 0.24 0.24 0.4400000000000001 0.04000000000000001 0.04000000000000001 0.06666666666666667 0.4 0.4 0.06666666666666667 0.06666666666666667 0.2 0.2 0.2 0.2 0.2 0.2 0.2 0.2 0.2 0.2 0.2 0.2 0.2 0.2 0.2 0.2 0.2 0.2 0.2 0.2 0.03999999999999999 0.03999999999999999 0.8399999999999999 0.03999999999999999 0.03999999999999999 0.06666666666666665 0.06666666666666665 0.7333333333333333 0.06666666666666665 0.06666666666666665 0.2 0.2 0.2 0.2 0.2 0.2 0.2 0.2 0.2 0.2 0.2 0.2 0.2 0.2 0.2 0.2 0.2 0.2 0.2 0.2 0.2 0.2 0.2 0.2 0.2 0.2 0.2 0.2 0.2 0.2 0.06666666666666667 0.4 0.4 0.06666666666666667 0.06666666666666667 0.2 0.2 0.2 0.2 0.2</probabilities>
			<property id="Type">INDICATOR</property>
		</cpt>
	</nodes>
	<extensions>
		<genie version="1.0" app="GeNIe 2.0.5079.0" name="RISCOSS_Risk_Drivers_Selection_Workshops_Community_v1" faultnameformat="nodestate">
			<node id="Vertices">
				<name>Vertices</name>
				<interior color="e5f6f7" />
				<outline color="000080" />
				<font color="000000" name="Arial" size="8" />
				<position>49 29 121 77</position>
				<barchart active="true" width="128" height="72" />
			</node>
			<node id="VMinimum_Clustering_Coefficient">
				<name>Minimum Clustering Coefficient</name>
				<interior color="e5f6f7" />
				<outline color="000080" />
				<font color="000000" name="Arial" size="8" />
				<position>37 112 109 160</position>
				<barchart active="true" width="128" height="72" />
			</node>
			<node id="VMaximum_Clustering_Coefficient">
				<name>Maximum Clustering Coefficient</name>
				<interior color="e5f6f7" />
				<outline color="000080" />
				<font color="000000" name="Arial" size="8" />
				<position>45 202 117 250</position>
				<barchart active="true" width="128" height="72" />
			</node>
			<node id="VAverage_Clustering_Coefficient">
				<name>Average Clustering Coefficient</name>
				<interior color="e5f6f7" />
				<outline color="000080" />
				<font color="000000" name="Arial" size="8" />
				<position>35 305 107 353</position>
				<barchart active="true" width="128" height="72" />
			</node>
			<node id="VMedian_Clustering_Coefficient">
				<name>Median Clustering Coefficient</name>
				<interior color="e5f6f7" />
				<outline color="000080" />
				<font color="000000" name="Arial" size="8" />
				<position>58 426 130 474</position>
				<barchart active="true" width="128" height="72" />
			</node>
			<node id="VCommunity_Timeliness">
				<name>Indicator Community Timeliness</name>
				<interior color="ffff99" />
				<outline color="000080" />
				<font color="000000" name="Arial" size="8" />
				<position>402 46 474 94</position>
				<barchart active="true" width="200" height="108" />
			</node>
			<node id="VCommunity_Activeness">
				<name>Indicator Community Activeness</name>
				<interior color="ffff99" />
				<outline color="000080" />
				<font color="000000" name="Arial" size="8" />
				<position>408 227 480 275</position>
				<barchart active="true" width="201" height="108" />
			</node>
			<node id="VCommunity_Forking">
				<name>Indicator Community Forking</name>
				<interior color="ffff99" />
				<outline color="000080" />
				<font color="000000" name="Arial" size="8" />
				<position>393 387 465 435</position>
				<barchart active="true" width="200" height="108" />
			</node>
		</genie>
	</extensions>
</smile>
